digraph Tree {
node [shape=box, fontname="helvetica"] ;
edge [fontname="helvetica"] ;
0 [label="right_eye_ratio <= 0.326\nentropy = 1.583\nsamples = 2503\nvalue = [887, 795, 821]\nclass = Eye Open"] ;
1 [label="left_eye_ratio <= 0.228\nentropy = 0.998\nsamples = 1682\nvalue = [887, 795, 0]\nclass = Eye Open"] ;
0 -> 1 [labeldistance=2.5, labelangle=45, headlabel="True"] ;
2 [label="entropy = 0.0\nsamples = 795\nvalue = [0, 795, 0]\nclass = Frown"] ;
1 -> 2 ;
3 [label="entropy = 0.0\nsamples = 887\nvalue = [887, 0, 0]\nclass = Eye Open"] ;
1 -> 3 ;
4 [label="entropy = 0.0\nsamples = 821\nvalue = [0, 0, 821]\nclass = Staring"] ;
0 -> 4 [labeldistance=2.5, labelangle=-45, headlabel="False"] ;
}