digraph Tree {
node [shape=box, fontname="helvetica"] ;
edge [fontname="helvetica"] ;
0 [label="right_eye_ratio <= 0.229\nentropy = 2.322\nsamples = 2003\nvalue = [402, 400, 399, 401, 401]\nclass = Eye Close"] ;
1 [label="Left_Ratio_Difference <= 0.169\nentropy = 1.473\nsamples = 916\nvalue = [4, 110, 398, 3, 401]\nclass = Staring"] ;
0 -> 1 [labeldistance=2.5, labelangle=45, headlabel="True"] ;
2 [label="right_eye_ratio <= 0.134\nentropy = 1.048\nsamples = 802\nvalue = [0, 5, 398, 0, 399]\nclass = Staring"] ;
1 -> 2 ;
3 [label="left_eye_ratio <= 0.118\nentropy = 0.549\nsamples = 347\nvalue = [0, 0, 44, 0, 303]\nclass = Staring"] ;
2 -> 3 ;
4 [label="Left_Ratio_Difference <= 0.068\nentropy = 0.206\nsamples = 217\nvalue = [0, 0, 7, 0, 210]\nclass = Staring"] ;
3 -> 4 ;
5 [label="entropy = 0.0\nsamples = 126\nvalue = [0, 0, 0, 0, 126]\nclass = Staring"] ;
4 -> 5 ;
6 [label="left_eye_ratio <= 0.081\nentropy = 0.391\nsamples = 91\nvalue = [0, 0, 7, 0, 84]\nclass = Staring"] ;
4 -> 6 ;
7 [label="left_eye_ratio <= 0.076\nentropy = 0.89\nsamples = 13\nvalue = [0, 0, 4, 0, 9]\nclass = Staring"] ;
6 -> 7 ;
8 [label="right_eye_ratio <= 0.056\nentropy = 0.469\nsamples = 10\nvalue = [0, 0, 1, 0, 9]\nclass = Staring"] ;
7 -> 8 ;
9 [label="entropy = 0.0\nsamples = 1\nvalue = [0, 0, 1, 0, 0]\nclass = Eye Open"] ;
8 -> 9 ;
10 [label="entropy = 0.0\nsamples = 9\nvalue = [0, 0, 0, 0, 9]\nclass = Staring"] ;
8 -> 10 ;
11 [label="entropy = 0.0\nsamples = 3\nvalue = [0, 0, 3, 0, 0]\nclass = Eye Open"] ;
7 -> 11 ;
12 [label="right_eye_ratio <= 0.109\nentropy = 0.235\nsamples = 78\nvalue = [0, 0, 3, 0, 75]\nclass = Staring"] ;
6 -> 12 ;
13 [label="entropy = 0.0\nsamples = 59\nvalue = [0, 0, 0, 0, 59]\nclass = Staring"] ;
12 -> 13 ;
14 [label="right_eye_ratio <= 0.114\nentropy = 0.629\nsamples = 19\nvalue = [0, 0, 3, 0, 16]\nclass = Staring"] ;
12 -> 14 ;
15 [label="entropy = 0.0\nsamples = 2\nvalue = [0, 0, 2, 0, 0]\nclass = Eye Open"] ;
14 -> 15 ;
16 [label="right_eye_ratio <= 0.125\nentropy = 0.323\nsamples = 17\nvalue = [0, 0, 1, 0, 16]\nclass = Staring"] ;
14 -> 16 ;
17 [label="entropy = 0.0\nsamples = 15\nvalue = [0, 0, 0, 0, 15]\nclass = Staring"] ;
16 -> 17 ;
18 [label="Eyes_Vertical_Ratio <= 0.1\nentropy = 1.0\nsamples = 2\nvalue = [0, 0, 1, 0, 1]\nclass = Eye Open"] ;
16 -> 18 ;
19 [label="entropy = 0.0\nsamples = 1\nvalue = [0, 0, 0, 0, 1]\nclass = Staring"] ;
18 -> 19 ;
20 [label="entropy = 0.0\nsamples = 1\nvalue = [0, 0, 1, 0, 0]\nclass = Eye Open"] ;
18 -> 20 ;
21 [label="Left_Ratio_Difference <= 0.058\nentropy = 0.862\nsamples = 130\nvalue = [0, 0, 37, 0, 93]\nclass = Staring"] ;
3 -> 21 ;
22 [label="left_eye_ratio <= 0.136\nentropy = 0.932\nsamples = 46\nvalue = [0, 0, 30, 0, 16]\nclass = Eye Open"] ;
21 -> 22 ;
23 [label="right_eye_ratio <= 0.125\nentropy = 0.99\nsamples = 25\nvalue = [0, 0, 11, 0, 14]\nclass = Staring"] ;
22 -> 23 ;
24 [label="left_eye_ratio <= 0.128\nentropy = 0.831\nsamples = 19\nvalue = [0, 0, 5, 0, 14]\nclass = Staring"] ;
23 -> 24 ;
25 [label="right_eye_ratio <= 0.119\nentropy = 0.991\nsamples = 9\nvalue = [0, 0, 5, 0, 4]\nclass = Eye Open"] ;
24 -> 25 ;
26 [label="entropy = 0.0\nsamples = 3\nvalue = [0, 0, 0, 0, 3]\nclass = Staring"] ;
25 -> 26 ;
27 [label="right_eye_ratio <= 0.122\nentropy = 0.65\nsamples = 6\nvalue = [0, 0, 5, 0, 1]\nclass = Eye Open"] ;
25 -> 27 ;
28 [label="entropy = 0.0\nsamples = 5\nvalue = [0, 0, 5, 0, 0]\nclass = Eye Open"] ;
27 -> 28 ;
29 [label="entropy = 0.0\nsamples = 1\nvalue = [0, 0, 0, 0, 1]\nclass = Staring"] ;
27 -> 29 ;
30 [label="entropy = 0.0\nsamples = 10\nvalue = [0, 0, 0, 0, 10]\nclass = Staring"] ;
24 -> 30 ;
31 [label="entropy = 0.0\nsamples = 6\nvalue = [0, 0, 6, 0, 0]\nclass = Eye Open"] ;
23 -> 31 ;
32 [label="Left_Ratio_Difference <= 0.051\nentropy = 0.454\nsamples = 21\nvalue = [0, 0, 19, 0, 2]\nclass = Eye Open"] ;
22 -> 32 ;
33 [label="entropy = 0.0\nsamples = 17\nvalue = [0, 0, 17, 0, 0]\nclass = Eye Open"] ;
32 -> 33 ;
34 [label="Left_Ratio_Difference <= 0.052\nentropy = 1.0\nsamples = 4\nvalue = [0, 0, 2, 0, 2]\nclass = Eye Open"] ;
32 -> 34 ;
35 [label="entropy = 0.0\nsamples = 2\nvalue = [0, 0, 0, 0, 2]\nclass = Staring"] ;
34 -> 35 ;
36 [label="entropy = 0.0\nsamples = 2\nvalue = [0, 0, 2, 0, 0]\nclass = Eye Open"] ;
34 -> 36 ;
37 [label="left_eye_ratio <= 0.125\nentropy = 0.414\nsamples = 84\nvalue = [0, 0, 7, 0, 77]\nclass = Staring"] ;
21 -> 37 ;
38 [label="right_eye_ratio <= 0.122\nentropy = 0.946\nsamples = 11\nvalue = [0, 0, 4, 0, 7]\nclass = Staring"] ;
37 -> 38 ;
39 [label="left_eye_ratio <= 0.119\nentropy = 0.544\nsamples = 8\nvalue = [0, 0, 1, 0, 7]\nclass = Staring"] ;
38 -> 39 ;
40 [label="entropy = 0.0\nsamples = 1\nvalue = [0, 0, 1, 0, 0]\nclass = Eye Open"] ;
39 -> 40 ;
41 [label="entropy = 0.0\nsamples = 7\nvalue = [0, 0, 0, 0, 7]\nclass = Staring"] ;
39 -> 41 ;
42 [label="entropy = 0.0\nsamples = 3\nvalue = [0, 0, 3, 0, 0]\nclass = Eye Open"] ;
38 -> 42 ;
43 [label="left_eye_ratio <= 0.137\nentropy = 0.247\nsamples = 73\nvalue = [0, 0, 3, 0, 70]\nclass = Staring"] ;
37 -> 43 ;
44 [label="entropy = 0.0\nsamples = 46\nvalue = [0, 0, 0, 0, 46]\nclass = Staring"] ;
43 -> 44 ;
45 [label="left_eye_ratio <= 0.14\nentropy = 0.503\nsamples = 27\nvalue = [0, 0, 3, 0, 24]\nclass = Staring"] ;
43 -> 45 ;
46 [label="entropy = 0.0\nsamples = 2\nvalue = [0, 0, 2, 0, 0]\nclass = Eye Open"] ;
45 -> 46 ;
47 [label="left_eye_ratio <= 0.157\nentropy = 0.242\nsamples = 25\nvalue = [0, 0, 1, 0, 24]\nclass = Staring"] ;
45 -> 47 ;
48 [label="entropy = 0.0\nsamples = 19\nvalue = [0, 0, 0, 0, 19]\nclass = Staring"] ;
47 -> 48 ;
49 [label="left_eye_ratio <= 0.158\nentropy = 0.65\nsamples = 6\nvalue = [0, 0, 1, 0, 5]\nclass = Staring"] ;
47 -> 49 ;
50 [label="entropy = 0.0\nsamples = 1\nvalue = [0, 0, 1, 0, 0]\nclass = Eye Open"] ;
49 -> 50 ;
51 [label="entropy = 0.0\nsamples = 5\nvalue = [0, 0, 0, 0, 5]\nclass = Staring"] ;
49 -> 51 ;
52 [label="Left_Ratio_Difference <= 0.064\nentropy = 0.827\nsamples = 455\nvalue = [0, 5, 354, 0, 96]\nclass = Eye Open"] ;
2 -> 52 ;
53 [label="left_eye_ratio <= 0.137\nentropy = 0.289\nsamples = 276\nvalue = [0, 0, 262, 0, 14]\nclass = Eye Open"] ;
52 -> 53 ;
54 [label="left_eye_ratio <= 0.128\nentropy = 0.871\nsamples = 24\nvalue = [0, 0, 17, 0, 7]\nclass = Eye Open"] ;
53 -> 54 ;
55 [label="Eyes_Vertical_Ratio <= 0.122\nentropy = 0.353\nsamples = 15\nvalue = [0, 0, 14, 0, 1]\nclass = Eye Open"] ;
54 -> 55 ;
56 [label="entropy = 0.0\nsamples = 12\nvalue = [0, 0, 12, 0, 0]\nclass = Eye Open"] ;
55 -> 56 ;
57 [label="left_eye_ratio <= 0.125\nentropy = 0.918\nsamples = 3\nvalue = [0, 0, 2, 0, 1]\nclass = Eye Open"] ;
55 -> 57 ;
58 [label="entropy = 0.0\nsamples = 2\nvalue = [0, 0, 2, 0, 0]\nclass = Eye Open"] ;
57 -> 58 ;
59 [label="entropy = 0.0\nsamples = 1\nvalue = [0, 0, 0, 0, 1]\nclass = Staring"] ;
57 -> 59 ;
60 [label="right_eye_ratio <= 0.147\nentropy = 0.918\nsamples = 9\nvalue = [0, 0, 3, 0, 6]\nclass = Staring"] ;
54 -> 60 ;
61 [label="entropy = 0.0\nsamples = 4\nvalue = [0, 0, 0, 0, 4]\nclass = Staring"] ;
60 -> 61 ;
62 [label="Left_Ratio_Difference <= 0.052\nentropy = 0.971\nsamples = 5\nvalue = [0, 0, 3, 0, 2]\nclass = Eye Open"] ;
60 -> 62 ;
63 [label="entropy = 0.0\nsamples = 3\nvalue = [0, 0, 3, 0, 0]\nclass = Eye Open"] ;
62 -> 63 ;
64 [label="entropy = 0.0\nsamples = 2\nvalue = [0, 0, 0, 0, 2]\nclass = Staring"] ;
62 -> 64 ;
65 [label="Left_Ratio_Difference <= 0.048\nentropy = 0.183\nsamples = 252\nvalue = [0, 0, 245, 0, 7]\nclass = Eye Open"] ;
53 -> 65 ;
66 [label="entropy = 0.0\nsamples = 137\nvalue = [0, 0, 137, 0, 0]\nclass = Eye Open"] ;
65 -> 66 ;
67 [label="Left_Ratio_Difference <= 0.049\nentropy = 0.331\nsamples = 115\nvalue = [0, 0, 108, 0, 7]\nclass = Eye Open"] ;
65 -> 67 ;
68 [label="Left_Ratio_Difference <= 0.049\nentropy = 0.954\nsamples = 8\nvalue = [0, 0, 5, 0, 3]\nclass = Eye Open"] ;
67 -> 68 ;
69 [label="Eyes_Vertical_Ratio <= 0.156\nentropy = 0.65\nsamples = 6\nvalue = [0, 0, 5, 0, 1]\nclass = Eye Open"] ;
68 -> 69 ;
70 [label="entropy = 0.0\nsamples = 5\nvalue = [0, 0, 5, 0, 0]\nclass = Eye Open"] ;
69 -> 70 ;
71 [label="entropy = 0.0\nsamples = 1\nvalue = [0, 0, 0, 0, 1]\nclass = Staring"] ;
69 -> 71 ;
72 [label="entropy = 0.0\nsamples = 2\nvalue = [0, 0, 0, 0, 2]\nclass = Staring"] ;
68 -> 72 ;
73 [label="left_eye_ratio <= 0.168\nentropy = 0.23\nsamples = 107\nvalue = [0, 0, 103, 0, 4]\nclass = Eye Open"] ;
67 -> 73 ;
74 [label="left_eye_ratio <= 0.166\nentropy = 0.362\nsamples = 58\nvalue = [0, 0, 54, 0, 4]\nclass = Eye Open"] ;
73 -> 74 ;
75 [label="Left_Ratio_Difference <= 0.062\nentropy = 0.297\nsamples = 57\nvalue = [0, 0, 54, 0, 3]\nclass = Eye Open"] ;
74 -> 75 ;
76 [label="right_eye_ratio <= 0.166\nentropy = 0.149\nsamples = 47\nvalue = [0, 0, 46, 0, 1]\nclass = Eye Open"] ;
75 -> 76 ;
77 [label="entropy = 0.0\nsamples = 38\nvalue = [0, 0, 38, 0, 0]\nclass = Eye Open"] ;
76 -> 77 ;
78 [label="Left_Ratio_Difference <= 0.052\nentropy = 0.503\nsamples = 9\nvalue = [0, 0, 8, 0, 1]\nclass = Eye Open"] ;
76 -> 78 ;
79 [label="entropy = 0.0\nsamples = 1\nvalue = [0, 0, 0, 0, 1]\nclass = Staring"] ;
78 -> 79 ;
80 [label="entropy = 0.0\nsamples = 8\nvalue = [0, 0, 8, 0, 0]\nclass = Eye Open"] ;
78 -> 80 ;
81 [label="Left_Ratio_Difference <= 0.063\nentropy = 0.722\nsamples = 10\nvalue = [0, 0, 8, 0, 2]\nclass = Eye Open"] ;
75 -> 81 ;
82 [label="right_eye_ratio <= 0.172\nentropy = 0.918\nsamples = 3\nvalue = [0, 0, 1, 0, 2]\nclass = Staring"] ;
81 -> 82 ;
83 [label="entropy = 0.0\nsamples = 2\nvalue = [0, 0, 0, 0, 2]\nclass = Staring"] ;
82 -> 83 ;
84 [label="entropy = 0.0\nsamples = 1\nvalue = [0, 0, 1, 0, 0]\nclass = Eye Open"] ;
82 -> 84 ;
85 [label="entropy = 0.0\nsamples = 7\nvalue = [0, 0, 7, 0, 0]\nclass = Eye Open"] ;
81 -> 85 ;
86 [label="entropy = 0.0\nsamples = 1\nvalue = [0, 0, 0, 0, 1]\nclass = Staring"] ;
74 -> 86 ;
87 [label="entropy = 0.0\nsamples = 49\nvalue = [0, 0, 49, 0, 0]\nclass = Eye Open"] ;
73 -> 87 ;
88 [label="Left_Ratio_Difference <= 0.094\nentropy = 1.154\nsamples = 179\nvalue = [0, 5, 92, 0, 82]\nclass = Eye Open"] ;
52 -> 88 ;
89 [label="right_eye_ratio <= 0.191\nentropy = 1.043\nsamples = 121\nvalue = [0, 2, 77, 0, 42]\nclass = Eye Open"] ;
88 -> 89 ;
90 [label="Eyes_Vertical_Ratio <= 0.175\nentropy = 0.971\nsamples = 105\nvalue = [0, 0, 63, 0, 42]\nclass = Eye Open"] ;
89 -> 90 ;
91 [label="right_eye_ratio <= 0.153\nentropy = 0.928\nsamples = 96\nvalue = [0, 0, 63, 0, 33]\nclass = Eye Open"] ;
90 -> 91 ;
92 [label="left_eye_ratio <= 0.129\nentropy = 0.971\nsamples = 40\nvalue = [0, 0, 16, 0, 24]\nclass = Staring"] ;
91 -> 92 ;
93 [label="entropy = 0.0\nsamples = 6\nvalue = [0, 0, 6, 0, 0]\nclass = Eye Open"] ;
92 -> 93 ;
94 [label="left_eye_ratio <= 0.155\nentropy = 0.874\nsamples = 34\nvalue = [0, 0, 10, 0, 24]\nclass = Staring"] ;
92 -> 94 ;
95 [label="Eyes_Vertical_Ratio <= 0.13\nentropy = 0.469\nsamples = 20\nvalue = [0, 0, 2, 0, 18]\nclass = Staring"] ;
94 -> 95 ;
96 [label="left_eye_ratio <= 0.137\nentropy = 0.764\nsamples = 9\nvalue = [0, 0, 2, 0, 7]\nclass = Staring"] ;
95 -> 96 ;
97 [label="entropy = 0.0\nsamples = 5\nvalue = [0, 0, 0, 0, 5]\nclass = Staring"] ;
96 -> 97 ;
98 [label="right_eye_ratio <= 0.14\nentropy = 1.0\nsamples = 4\nvalue = [0, 0, 2, 0, 2]\nclass = Eye Open"] ;
96 -> 98 ;
99 [label="entropy = 0.0\nsamples = 2\nvalue = [0, 0, 0, 0, 2]\nclass = Staring"] ;
98 -> 99 ;
100 [label="entropy = 0.0\nsamples = 2\nvalue = [0, 0, 2, 0, 0]\nclass = Eye Open"] ;
98 -> 100 ;
101 [label="entropy = 0.0\nsamples = 11\nvalue = [0, 0, 0, 0, 11]\nclass = Staring"] ;
95 -> 101 ;
102 [label="Eyes_Vertical_Ratio <= 0.134\nentropy = 0.985\nsamples = 14\nvalue = [0, 0, 8, 0, 6]\nclass = Eye Open"] ;
94 -> 102 ;
103 [label="entropy = 0.0\nsamples = 6\nvalue = [0, 0, 6, 0, 0]\nclass = Eye Open"] ;
102 -> 103 ;
104 [label="Left_Ratio_Difference <= 0.077\nentropy = 0.811\nsamples = 8\nvalue = [0, 0, 2, 0, 6]\nclass = Staring"] ;
102 -> 104 ;
105 [label="left_eye_ratio <= 0.18\nentropy = 0.918\nsamples = 3\nvalue = [0, 0, 2, 0, 1]\nclass = Eye Open"] ;
104 -> 105 ;
106 [label="entropy = 0.0\nsamples = 2\nvalue = [0, 0, 2, 0, 0]\nclass = Eye Open"] ;
105 -> 106 ;
107 [label="entropy = 0.0\nsamples = 1\nvalue = [0, 0, 0, 0, 1]\nclass = Staring"] ;
105 -> 107 ;
108 [label="entropy = 0.0\nsamples = 5\nvalue = [0, 0, 0, 0, 5]\nclass = Staring"] ;
104 -> 108 ;
109 [label="Eyes_Vertical_Ratio <= 0.146\nentropy = 0.636\nsamples = 56\nvalue = [0, 0, 47, 0, 9]\nclass = Eye Open"] ;
91 -> 109 ;
110 [label="entropy = 0.0\nsamples = 31\nvalue = [0, 0, 31, 0, 0]\nclass = Eye Open"] ;
109 -> 110 ;
111 [label="left_eye_ratio <= 0.189\nentropy = 0.943\nsamples = 25\nvalue = [0, 0, 16, 0, 9]\nclass = Eye Open"] ;
109 -> 111 ;
112 [label="Eyes_Vertical_Ratio <= 0.148\nentropy = 0.993\nsamples = 20\nvalue = [0, 0, 11, 0, 9]\nclass = Eye Open"] ;
111 -> 112 ;
113 [label="entropy = 0.0\nsamples = 2\nvalue = [0, 0, 0, 0, 2]\nclass = Staring"] ;
112 -> 113 ;
114 [label="left_eye_ratio <= 0.185\nentropy = 0.964\nsamples = 18\nvalue = [0, 0, 11, 0, 7]\nclass = Eye Open"] ;
112 -> 114 ;
115 [label="right_eye_ratio <= 0.173\nentropy = 0.896\nsamples = 16\nvalue = [0, 0, 11, 0, 5]\nclass = Eye Open"] ;
114 -> 115 ;
116 [label="right_eye_ratio <= 0.168\nentropy = 1.0\nsamples = 10\nvalue = [0, 0, 5, 0, 5]\nclass = Eye Open"] ;
115 -> 116 ;
117 [label="right_eye_ratio <= 0.162\nentropy = 0.954\nsamples = 8\nvalue = [0, 0, 5, 0, 3]\nclass = Eye Open"] ;
116 -> 117 ;
118 [label="Eyes_Vertical_Ratio <= 0.15\nentropy = 0.971\nsamples = 5\nvalue = [0, 0, 2, 0, 3]\nclass = Staring"] ;
117 -> 118 ;
119 [label="Left_Ratio_Difference <= 0.068\nentropy = 0.918\nsamples = 3\nvalue = [0, 0, 2, 0, 1]\nclass = Eye Open"] ;
118 -> 119 ;
120 [label="entropy = 0.0\nsamples = 2\nvalue = [0, 0, 2, 0, 0]\nclass = Eye Open"] ;
119 -> 120 ;
121 [label="entropy = 0.0\nsamples = 1\nvalue = [0, 0, 0, 0, 1]\nclass = Staring"] ;
119 -> 121 ;
122 [label="entropy = 0.0\nsamples = 2\nvalue = [0, 0, 0, 0, 2]\nclass = Staring"] ;
118 -> 122 ;
123 [label="entropy = 0.0\nsamples = 3\nvalue = [0, 0, 3, 0, 0]\nclass = Eye Open"] ;
117 -> 123 ;
124 [label="entropy = 0.0\nsamples = 2\nvalue = [0, 0, 0, 0, 2]\nclass = Staring"] ;
116 -> 124 ;
125 [label="entropy = 0.0\nsamples = 6\nvalue = [0, 0, 6, 0, 0]\nclass = Eye Open"] ;
115 -> 125 ;
126 [label="entropy = 0.0\nsamples = 2\nvalue = [0, 0, 0, 0, 2]\nclass = Staring"] ;
114 -> 126 ;
127 [label="entropy = 0.0\nsamples = 5\nvalue = [0, 0, 5, 0, 0]\nclass = Eye Open"] ;
111 -> 127 ;
128 [label="entropy = 0.0\nsamples = 9\nvalue = [0, 0, 0, 0, 9]\nclass = Staring"] ;
90 -> 128 ;
129 [label="Eyes_Vertical_Ratio <= 0.182\nentropy = 0.544\nsamples = 16\nvalue = [0, 2, 14, 0, 0]\nclass = Eye Open"] ;
89 -> 129 ;
130 [label="entropy = 0.0\nsamples = 12\nvalue = [0, 0, 12, 0, 0]\nclass = Eye Open"] ;
129 -> 130 ;
131 [label="Left_Ratio_Difference <= 0.077\nentropy = 1.0\nsamples = 4\nvalue = [0, 2, 2, 0, 0]\nclass = Blinking"] ;
129 -> 131 ;
132 [label="entropy = 0.0\nsamples = 2\nvalue = [0, 0, 2, 0, 0]\nclass = Eye Open"] ;
131 -> 132 ;
133 [label="entropy = 0.0\nsamples = 2\nvalue = [0, 2, 0, 0, 0]\nclass = Blinking"] ;
131 -> 133 ;
134 [label="Left_Ratio_Difference <= 0.132\nentropy = 1.095\nsamples = 58\nvalue = [0, 3, 15, 0, 40]\nclass = Staring"] ;
88 -> 134 ;
135 [label="Eyes_Vertical_Ratio <= 0.165\nentropy = 0.855\nsamples = 50\nvalue = [0, 0, 14, 0, 36]\nclass = Staring"] ;
134 -> 135 ;
136 [label="right_eye_ratio <= 0.175\nentropy = 0.926\nsamples = 41\nvalue = [0, 0, 14, 0, 27]\nclass = Staring"] ;
135 -> 136 ;
137 [label="right_eye_ratio <= 0.155\nentropy = 0.787\nsamples = 34\nvalue = [0, 0, 8, 0, 26]\nclass = Staring"] ;
136 -> 137 ;
138 [label="Left_Ratio_Difference <= 0.102\nentropy = 0.353\nsamples = 15\nvalue = [0, 0, 1, 0, 14]\nclass = Staring"] ;
137 -> 138 ;
139 [label="left_eye_ratio <= 0.154\nentropy = 0.918\nsamples = 3\nvalue = [0, 0, 1, 0, 2]\nclass = Staring"] ;
138 -> 139 ;
140 [label="entropy = 0.0\nsamples = 2\nvalue = [0, 0, 0, 0, 2]\nclass = Staring"] ;
139 -> 140 ;
141 [label="entropy = 0.0\nsamples = 1\nvalue = [0, 0, 1, 0, 0]\nclass = Eye Open"] ;
139 -> 141 ;
142 [label="entropy = 0.0\nsamples = 12\nvalue = [0, 0, 0, 0, 12]\nclass = Staring"] ;
138 -> 142 ;
143 [label="right_eye_ratio <= 0.158\nentropy = 0.949\nsamples = 19\nvalue = [0, 0, 7, 0, 12]\nclass = Staring"] ;
137 -> 143 ;
144 [label="entropy = 0.0\nsamples = 3\nvalue = [0, 0, 3, 0, 0]\nclass = Eye Open"] ;
143 -> 144 ;
145 [label="left_eye_ratio <= 0.16\nentropy = 0.811\nsamples = 16\nvalue = [0, 0, 4, 0, 12]\nclass = Staring"] ;
143 -> 145 ;
146 [label="entropy = 0.0\nsamples = 7\nvalue = [0, 0, 0, 0, 7]\nclass = Staring"] ;
145 -> 146 ;
147 [label="left_eye_ratio <= 0.164\nentropy = 0.991\nsamples = 9\nvalue = [0, 0, 4, 0, 5]\nclass = Staring"] ;
145 -> 147 ;
148 [label="entropy = 0.0\nsamples = 2\nvalue = [0, 0, 2, 0, 0]\nclass = Eye Open"] ;
147 -> 148 ;
149 [label="Left_Ratio_Difference <= 0.097\nentropy = 0.863\nsamples = 7\nvalue = [0, 0, 2, 0, 5]\nclass = Staring"] ;
147 -> 149 ;
150 [label="entropy = 0.0\nsamples = 1\nvalue = [0, 0, 1, 0, 0]\nclass = Eye Open"] ;
149 -> 150 ;
151 [label="Eyes_Vertical_Ratio <= 0.15\nentropy = 0.65\nsamples = 6\nvalue = [0, 0, 1, 0, 5]\nclass = Staring"] ;
149 -> 151 ;
152 [label="right_eye_ratio <= 0.161\nentropy = 1.0\nsamples = 2\nvalue = [0, 0, 1, 0, 1]\nclass = Eye Open"] ;
151 -> 152 ;
153 [label="entropy = 0.0\nsamples = 1\nvalue = [0, 0, 1, 0, 0]\nclass = Eye Open"] ;
152 -> 153 ;
154 [label="entropy = 0.0\nsamples = 1\nvalue = [0, 0, 0, 0, 1]\nclass = Staring"] ;
152 -> 154 ;
155 [label="entropy = 0.0\nsamples = 4\nvalue = [0, 0, 0, 0, 4]\nclass = Staring"] ;
151 -> 155 ;
156 [label="left_eye_ratio <= 0.155\nentropy = 0.592\nsamples = 7\nvalue = [0, 0, 6, 0, 1]\nclass = Eye Open"] ;
136 -> 156 ;
157 [label="entropy = 0.0\nsamples = 1\nvalue = [0, 0, 0, 0, 1]\nclass = Staring"] ;
156 -> 157 ;
158 [label="entropy = 0.0\nsamples = 6\nvalue = [0, 0, 6, 0, 0]\nclass = Eye Open"] ;
156 -> 158 ;
159 [label="entropy = 0.0\nsamples = 9\nvalue = [0, 0, 0, 0, 9]\nclass = Staring"] ;
135 -> 159 ;
160 [label="Left_Ratio_Difference <= 0.164\nentropy = 1.406\nsamples = 8\nvalue = [0, 3, 1, 0, 4]\nclass = Staring"] ;
134 -> 160 ;
161 [label="Eyes_Vertical_Ratio <= 0.154\nentropy = 0.985\nsamples = 7\nvalue = [0, 3, 0, 0, 4]\nclass = Staring"] ;
160 -> 161 ;
162 [label="entropy = 0.0\nsamples = 2\nvalue = [0, 2, 0, 0, 0]\nclass = Blinking"] ;
161 -> 162 ;
163 [label="right_eye_ratio <= 0.213\nentropy = 0.722\nsamples = 5\nvalue = [0, 1, 0, 0, 4]\nclass = Staring"] ;
161 -> 163 ;
164 [label="entropy = 0.0\nsamples = 4\nvalue = [0, 0, 0, 0, 4]\nclass = Staring"] ;
163 -> 164 ;
165 [label="entropy = 0.0\nsamples = 1\nvalue = [0, 1, 0, 0, 0]\nclass = Blinking"] ;
163 -> 165 ;
166 [label="entropy = 0.0\nsamples = 1\nvalue = [0, 0, 1, 0, 0]\nclass = Eye Open"] ;
160 -> 166 ;
167 [label="Left_Ratio_Difference <= 0.207\nentropy = 0.519\nsamples = 114\nvalue = [4, 105, 0, 3, 2]\nclass = Blinking"] ;
1 -> 167 ;
168 [label="left_eye_ratio <= 0.112\nentropy = 1.371\nsamples = 10\nvalue = [2, 6, 0, 0, 2]\nclass = Blinking"] ;
167 -> 168 ;
169 [label="right_eye_ratio <= 0.104\nentropy = 1.585\nsamples = 6\nvalue = [2, 2, 0, 0, 2]\nclass = Eye Close"] ;
168 -> 169 ;
170 [label="Eyes_Vertical_Ratio <= 0.083\nentropy = 0.918\nsamples = 3\nvalue = [1, 0, 0, 0, 2]\nclass = Staring"] ;
169 -> 170 ;
171 [label="entropy = 0.0\nsamples = 1\nvalue = [1, 0, 0, 0, 0]\nclass = Eye Close"] ;
170 -> 171 ;
172 [label="entropy = 0.0\nsamples = 2\nvalue = [0, 0, 0, 0, 2]\nclass = Staring"] ;
170 -> 172 ;
173 [label="Left_Ratio_Difference <= 0.196\nentropy = 0.918\nsamples = 3\nvalue = [1, 2, 0, 0, 0]\nclass = Blinking"] ;
169 -> 173 ;
174 [label="entropy = 0.0\nsamples = 1\nvalue = [1, 0, 0, 0, 0]\nclass = Eye Close"] ;
173 -> 174 ;
175 [label="entropy = 0.0\nsamples = 2\nvalue = [0, 2, 0, 0, 0]\nclass = Blinking"] ;
173 -> 175 ;
176 [label="entropy = 0.0\nsamples = 4\nvalue = [0, 4, 0, 0, 0]\nclass = Blinking"] ;
168 -> 176 ;
177 [label="right_eye_ratio <= 0.114\nentropy = 0.325\nsamples = 104\nvalue = [2, 99, 0, 3, 0]\nclass = Blinking"] ;
167 -> 177 ;
178 [label="entropy = 0.0\nsamples = 77\nvalue = [0, 77, 0, 0, 0]\nclass = Blinking"] ;
177 -> 178 ;
179 [label="Eyes_Vertical_Ratio <= 0.117\nentropy = 0.871\nsamples = 27\nvalue = [2, 22, 0, 3, 0]\nclass = Blinking"] ;
177 -> 179 ;
180 [label="right_eye_ratio <= 0.122\nentropy = 1.459\nsamples = 6\nvalue = [1, 2, 0, 3, 0]\nclass = Frown"] ;
179 -> 180 ;
181 [label="entropy = 0.0\nsamples = 1\nvalue = [1, 0, 0, 0, 0]\nclass = Eye Close"] ;
180 -> 181 ;
182 [label="left_eye_ratio <= 0.131\nentropy = 0.971\nsamples = 5\nvalue = [0, 2, 0, 3, 0]\nclass = Frown"] ;
180 -> 182 ;
183 [label="Eyes_Vertical_Ratio <= 0.096\nentropy = 0.918\nsamples = 3\nvalue = [0, 2, 0, 1, 0]\nclass = Blinking"] ;
182 -> 183 ;
184 [label="entropy = 0.0\nsamples = 1\nvalue = [0, 0, 0, 1, 0]\nclass = Frown"] ;
183 -> 184 ;
185 [label="entropy = 0.0\nsamples = 2\nvalue = [0, 2, 0, 0, 0]\nclass = Blinking"] ;
183 -> 185 ;
186 [label="entropy = 0.0\nsamples = 2\nvalue = [0, 0, 0, 2, 0]\nclass = Frown"] ;
182 -> 186 ;
187 [label="right_eye_ratio <= 0.21\nentropy = 0.276\nsamples = 21\nvalue = [1, 20, 0, 0, 0]\nclass = Blinking"] ;
179 -> 187 ;
188 [label="entropy = 0.0\nsamples = 16\nvalue = [0, 16, 0, 0, 0]\nclass = Blinking"] ;
187 -> 188 ;
189 [label="right_eye_ratio <= 0.214\nentropy = 0.722\nsamples = 5\nvalue = [1, 4, 0, 0, 0]\nclass = Blinking"] ;
187 -> 189 ;
190 [label="entropy = 0.0\nsamples = 1\nvalue = [1, 0, 0, 0, 0]\nclass = Eye Close"] ;
189 -> 190 ;
191 [label="entropy = 0.0\nsamples = 4\nvalue = [0, 4, 0, 0, 0]\nclass = Blinking"] ;
189 -> 191 ;
192 [label="left_eye_ratio <= 0.325\nentropy = 1.579\nsamples = 1087\nvalue = [398, 290, 1, 398, 0]\nclass = Eye Close"] ;
0 -> 192 [labeldistance=2.5, labelangle=-45, headlabel="False"] ;
193 [label="Left_Ratio_Difference <= 0.08\nentropy = 1.09\nsamples = 697\nvalue = [398, 288, 1, 10, 0]\nclass = Eye Close"] ;
192 -> 193 ;
194 [label="right_eye_ratio <= 0.302\nentropy = 0.842\nsamples = 489\nvalue = [378, 105, 0, 6, 0]\nclass = Eye Close"] ;
193 -> 194 ;
195 [label="right_eye_ratio <= 0.279\nentropy = 0.603\nsamples = 401\nvalue = [342, 59, 0, 0, 0]\nclass = Eye Close"] ;
194 -> 195 ;
196 [label="right_eye_ratio <= 0.276\nentropy = 0.373\nsamples = 236\nvalue = [219, 17, 0, 0, 0]\nclass = Eye Close"] ;
195 -> 196 ;
197 [label="right_eye_ratio <= 0.271\nentropy = 0.518\nsamples = 138\nvalue = [122, 16, 0, 0, 0]\nclass = Eye Close"] ;
196 -> 197 ;
198 [label="right_eye_ratio <= 0.25\nentropy = 0.389\nsamples = 131\nvalue = [121, 10, 0, 0, 0]\nclass = Eye Close"] ;
197 -> 198 ;
199 [label="right_eye_ratio <= 0.246\nentropy = 0.991\nsamples = 9\nvalue = [5, 4, 0, 0, 0]\nclass = Eye Close"] ;
198 -> 199 ;
200 [label="left_eye_ratio <= 0.251\nentropy = 0.863\nsamples = 7\nvalue = [5, 2, 0, 0, 0]\nclass = Eye Close"] ;
199 -> 200 ;
201 [label="right_eye_ratio <= 0.236\nentropy = 1.0\nsamples = 4\nvalue = [2, 2, 0, 0, 0]\nclass = Eye Close"] ;
200 -> 201 ;
202 [label="entropy = 0.0\nsamples = 1\nvalue = [1, 0, 0, 0, 0]\nclass = Eye Close"] ;
201 -> 202 ;
203 [label="right_eye_ratio <= 0.241\nentropy = 0.918\nsamples = 3\nvalue = [1, 2, 0, 0, 0]\nclass = Blinking"] ;
201 -> 203 ;
204 [label="entropy = 0.0\nsamples = 2\nvalue = [0, 2, 0, 0, 0]\nclass = Blinking"] ;
203 -> 204 ;
205 [label="entropy = 0.0\nsamples = 1\nvalue = [1, 0, 0, 0, 0]\nclass = Eye Close"] ;
203 -> 205 ;
206 [label="entropy = 0.0\nsamples = 3\nvalue = [3, 0, 0, 0, 0]\nclass = Eye Close"] ;
200 -> 206 ;
207 [label="entropy = 0.0\nsamples = 2\nvalue = [0, 2, 0, 0, 0]\nclass = Blinking"] ;
199 -> 207 ;
208 [label="left_eye_ratio <= 0.283\nentropy = 0.283\nsamples = 122\nvalue = [116, 6, 0, 0, 0]\nclass = Eye Close"] ;
198 -> 208 ;
209 [label="left_eye_ratio <= 0.266\nentropy = 0.221\nsamples = 113\nvalue = [109, 4, 0, 0, 0]\nclass = Eye Close"] ;
208 -> 209 ;
210 [label="Left_Ratio_Difference <= 0.025\nentropy = 0.397\nsamples = 51\nvalue = [47, 4, 0, 0, 0]\nclass = Eye Close"] ;
209 -> 210 ;
211 [label="entropy = 0.0\nsamples = 1\nvalue = [0, 1, 0, 0, 0]\nclass = Blinking"] ;
210 -> 211 ;
212 [label="left_eye_ratio <= 0.263\nentropy = 0.327\nsamples = 50\nvalue = [47, 3, 0, 0, 0]\nclass = Eye Close"] ;
210 -> 212 ;
213 [label="right_eye_ratio <= 0.251\nentropy = 0.246\nsamples = 49\nvalue = [47, 2, 0, 0, 0]\nclass = Eye Close"] ;
212 -> 213 ;
214 [label="Left_Ratio_Difference <= 0.062\nentropy = 0.918\nsamples = 3\nvalue = [2, 1, 0, 0, 0]\nclass = Eye Close"] ;
213 -> 214 ;
215 [label="entropy = 0.0\nsamples = 2\nvalue = [2, 0, 0, 0, 0]\nclass = Eye Close"] ;
214 -> 215 ;
216 [label="entropy = 0.0\nsamples = 1\nvalue = [0, 1, 0, 0, 0]\nclass = Blinking"] ;
214 -> 216 ;
217 [label="right_eye_ratio <= 0.261\nentropy = 0.151\nsamples = 46\nvalue = [45, 1, 0, 0, 0]\nclass = Eye Close"] ;
213 -> 217 ;
218 [label="entropy = 0.0\nsamples = 30\nvalue = [30, 0, 0, 0, 0]\nclass = Eye Close"] ;
217 -> 218 ;
219 [label="right_eye_ratio <= 0.265\nentropy = 0.337\nsamples = 16\nvalue = [15, 1, 0, 0, 0]\nclass = Eye Close"] ;
217 -> 219 ;
220 [label="entropy = 0.0\nsamples = 1\nvalue = [0, 1, 0, 0, 0]\nclass = Blinking"] ;
219 -> 220 ;
221 [label="entropy = 0.0\nsamples = 15\nvalue = [15, 0, 0, 0, 0]\nclass = Eye Close"] ;
219 -> 221 ;
222 [label="entropy = 0.0\nsamples = 1\nvalue = [0, 1, 0, 0, 0]\nclass = Blinking"] ;
212 -> 222 ;
223 [label="entropy = 0.0\nsamples = 62\nvalue = [62, 0, 0, 0, 0]\nclass = Eye Close"] ;
209 -> 223 ;
224 [label="Left_Ratio_Difference <= 0.062\nentropy = 0.764\nsamples = 9\nvalue = [7, 2, 0, 0, 0]\nclass = Eye Close"] ;
208 -> 224 ;
225 [label="entropy = 0.0\nsamples = 6\nvalue = [6, 0, 0, 0, 0]\nclass = Eye Close"] ;
224 -> 225 ;
226 [label="Left_Ratio_Difference <= 0.076\nentropy = 0.918\nsamples = 3\nvalue = [1, 2, 0, 0, 0]\nclass = Blinking"] ;
224 -> 226 ;
227 [label="entropy = 0.0\nsamples = 2\nvalue = [0, 2, 0, 0, 0]\nclass = Blinking"] ;
226 -> 227 ;
228 [label="entropy = 0.0\nsamples = 1\nvalue = [1, 0, 0, 0, 0]\nclass = Eye Close"] ;
226 -> 228 ;
229 [label="Left_Ratio_Difference <= 0.073\nentropy = 0.592\nsamples = 7\nvalue = [1, 6, 0, 0, 0]\nclass = Blinking"] ;
197 -> 229 ;
230 [label="entropy = 0.0\nsamples = 6\nvalue = [0, 6, 0, 0, 0]\nclass = Blinking"] ;
229 -> 230 ;
231 [label="entropy = 0.0\nsamples = 1\nvalue = [1, 0, 0, 0, 0]\nclass = Eye Close"] ;
229 -> 231 ;
232 [label="Eyes_Vertical_Ratio <= 0.25\nentropy = 0.082\nsamples = 98\nvalue = [97, 1, 0, 0, 0]\nclass = Eye Close"] ;
196 -> 232 ;
233 [label="entropy = 0.0\nsamples = 84\nvalue = [84, 0, 0, 0, 0]\nclass = Eye Close"] ;
232 -> 233 ;
234 [label="Eyes_Vertical_Ratio <= 0.25\nentropy = 0.371\nsamples = 14\nvalue = [13, 1, 0, 0, 0]\nclass = Eye Close"] ;
232 -> 234 ;
235 [label="entropy = 0.0\nsamples = 1\nvalue = [0, 1, 0, 0, 0]\nclass = Blinking"] ;
234 -> 235 ;
236 [label="entropy = 0.0\nsamples = 13\nvalue = [13, 0, 0, 0, 0]\nclass = Eye Close"] ;
234 -> 236 ;
237 [label="right_eye_ratio <= 0.295\nentropy = 0.818\nsamples = 165\nvalue = [123, 42, 0, 0, 0]\nclass = Eye Close"] ;
195 -> 237 ;
238 [label="right_eye_ratio <= 0.29\nentropy = 0.991\nsamples = 88\nvalue = [49, 39, 0, 0, 0]\nclass = Eye Close"] ;
237 -> 238 ;
239 [label="right_eye_ratio <= 0.285\nentropy = 0.764\nsamples = 63\nvalue = [49, 14, 0, 0, 0]\nclass = Eye Close"] ;
238 -> 239 ;
240 [label="right_eye_ratio <= 0.281\nentropy = 0.966\nsamples = 23\nvalue = [9, 14, 0, 0, 0]\nclass = Blinking"] ;
239 -> 240 ;
241 [label="right_eye_ratio <= 0.279\nentropy = 0.94\nsamples = 14\nvalue = [9, 5, 0, 0, 0]\nclass = Eye Close"] ;
240 -> 241 ;
242 [label="entropy = 0.0\nsamples = 3\nvalue = [0, 3, 0, 0, 0]\nclass = Blinking"] ;
241 -> 242 ;
243 [label="left_eye_ratio <= 0.272\nentropy = 0.684\nsamples = 11\nvalue = [9, 2, 0, 0, 0]\nclass = Eye Close"] ;
241 -> 243 ;
244 [label="entropy = 0.0\nsamples = 5\nvalue = [5, 0, 0, 0, 0]\nclass = Eye Close"] ;
243 -> 244 ;
245 [label="Eyes_Vertical_Ratio <= 0.25\nentropy = 0.918\nsamples = 6\nvalue = [4, 2, 0, 0, 0]\nclass = Eye Close"] ;
243 -> 245 ;
246 [label="Left_Ratio_Difference <= 0.031\nentropy = 0.918\nsamples = 3\nvalue = [1, 2, 0, 0, 0]\nclass = Blinking"] ;
245 -> 246 ;
247 [label="entropy = 0.0\nsamples = 1\nvalue = [1, 0, 0, 0, 0]\nclass = Eye Close"] ;
246 -> 247 ;
248 [label="entropy = 0.0\nsamples = 2\nvalue = [0, 2, 0, 0, 0]\nclass = Blinking"] ;
246 -> 248 ;
249 [label="entropy = 0.0\nsamples = 3\nvalue = [3, 0, 0, 0, 0]\nclass = Eye Close"] ;
245 -> 249 ;
250 [label="entropy = 0.0\nsamples = 9\nvalue = [0, 9, 0, 0, 0]\nclass = Blinking"] ;
240 -> 250 ;
251 [label="entropy = 0.0\nsamples = 40\nvalue = [40, 0, 0, 0, 0]\nclass = Eye Close"] ;
239 -> 251 ;
252 [label="entropy = 0.0\nsamples = 25\nvalue = [0, 25, 0, 0, 0]\nclass = Blinking"] ;
238 -> 252 ;
253 [label="Left_Ratio_Difference <= 0.056\nentropy = 0.238\nsamples = 77\nvalue = [74, 3, 0, 0, 0]\nclass = Eye Close"] ;
237 -> 253 ;
254 [label="entropy = 0.0\nsamples = 60\nvalue = [60, 0, 0, 0, 0]\nclass = Eye Close"] ;
253 -> 254 ;
255 [label="Left_Ratio_Difference <= 0.056\nentropy = 0.672\nsamples = 17\nvalue = [14, 3, 0, 0, 0]\nclass = Eye Close"] ;
253 -> 255 ;
256 [label="entropy = 0.0\nsamples = 1\nvalue = [0, 1, 0, 0, 0]\nclass = Blinking"] ;
255 -> 256 ;
257 [label="Left_Ratio_Difference <= 0.063\nentropy = 0.544\nsamples = 16\nvalue = [14, 2, 0, 0, 0]\nclass = Eye Close"] ;
255 -> 257 ;
258 [label="entropy = 0.0\nsamples = 9\nvalue = [9, 0, 0, 0, 0]\nclass = Eye Close"] ;
257 -> 258 ;
259 [label="Left_Ratio_Difference <= 0.066\nentropy = 0.863\nsamples = 7\nvalue = [5, 2, 0, 0, 0]\nclass = Eye Close"] ;
257 -> 259 ;
260 [label="entropy = 0.0\nsamples = 1\nvalue = [0, 1, 0, 0, 0]\nclass = Blinking"] ;
259 -> 260 ;
261 [label="right_eye_ratio <= 0.299\nentropy = 0.65\nsamples = 6\nvalue = [5, 1, 0, 0, 0]\nclass = Eye Close"] ;
259 -> 261 ;
262 [label="entropy = 0.0\nsamples = 5\nvalue = [5, 0, 0, 0, 0]\nclass = Eye Close"] ;
261 -> 262 ;
263 [label="entropy = 0.0\nsamples = 1\nvalue = [0, 1, 0, 0, 0]\nclass = Blinking"] ;
261 -> 263 ;
264 [label="left_eye_ratio <= 0.307\nentropy = 1.281\nsamples = 88\nvalue = [36, 46, 0, 6, 0]\nclass = Blinking"] ;
194 -> 264 ;
265 [label="left_eye_ratio <= 0.304\nentropy = 1.043\nsamples = 67\nvalue = [24, 42, 0, 1, 0]\nclass = Blinking"] ;
264 -> 265 ;
266 [label="Left_Ratio_Difference <= 0.041\nentropy = 1.115\nsamples = 52\nvalue = [24, 27, 0, 1, 0]\nclass = Blinking"] ;
265 -> 266 ;
267 [label="Eyes_Vertical_Ratio <= 0.276\nentropy = 0.414\nsamples = 12\nvalue = [11, 1, 0, 0, 0]\nclass = Eye Close"] ;
266 -> 267 ;
268 [label="entropy = 0.0\nsamples = 11\nvalue = [11, 0, 0, 0, 0]\nclass = Eye Close"] ;
267 -> 268 ;
269 [label="entropy = 0.0\nsamples = 1\nvalue = [0, 1, 0, 0, 0]\nclass = Blinking"] ;
267 -> 269 ;
270 [label="left_eye_ratio <= 0.304\nentropy = 1.064\nsamples = 40\nvalue = [13, 26, 0, 1, 0]\nclass = Blinking"] ;
266 -> 270 ;
271 [label="left_eye_ratio <= 0.267\nentropy = 0.918\nsamples = 39\nvalue = [13, 26, 0, 0, 0]\nclass = Blinking"] ;
270 -> 271 ;
272 [label="entropy = 0.0\nsamples = 6\nvalue = [0, 6, 0, 0, 0]\nclass = Blinking"] ;
271 -> 272 ;
273 [label="Eyes_Vertical_Ratio <= 0.259\nentropy = 0.967\nsamples = 33\nvalue = [13, 20, 0, 0, 0]\nclass = Blinking"] ;
271 -> 273 ;
274 [label="right_eye_ratio <= 0.307\nentropy = 0.845\nsamples = 11\nvalue = [8, 3, 0, 0, 0]\nclass = Eye Close"] ;
273 -> 274 ;
275 [label="Eyes_Vertical_Ratio <= 0.254\nentropy = 0.811\nsamples = 4\nvalue = [1, 3, 0, 0, 0]\nclass = Blinking"] ;
274 -> 275 ;
276 [label="entropy = 0.0\nsamples = 3\nvalue = [0, 3, 0, 0, 0]\nclass = Blinking"] ;
275 -> 276 ;
277 [label="entropy = 0.0\nsamples = 1\nvalue = [1, 0, 0, 0, 0]\nclass = Eye Close"] ;
275 -> 277 ;
278 [label="entropy = 0.0\nsamples = 7\nvalue = [7, 0, 0, 0, 0]\nclass = Eye Close"] ;
274 -> 278 ;
279 [label="left_eye_ratio <= 0.286\nentropy = 0.773\nsamples = 22\nvalue = [5, 17, 0, 0, 0]\nclass = Blinking"] ;
273 -> 279 ;
280 [label="entropy = 0.0\nsamples = 9\nvalue = [0, 9, 0, 0, 0]\nclass = Blinking"] ;
279 -> 280 ;
281 [label="left_eye_ratio <= 0.291\nentropy = 0.961\nsamples = 13\nvalue = [5, 8, 0, 0, 0]\nclass = Blinking"] ;
279 -> 281 ;
282 [label="entropy = 0.0\nsamples = 3\nvalue = [3, 0, 0, 0, 0]\nclass = Eye Close"] ;
281 -> 282 ;
283 [label="right_eye_ratio <= 0.304\nentropy = 0.722\nsamples = 10\nvalue = [2, 8, 0, 0, 0]\nclass = Blinking"] ;
281 -> 283 ;
284 [label="entropy = 0.0\nsamples = 1\nvalue = [1, 0, 0, 0, 0]\nclass = Eye Close"] ;
283 -> 284 ;
285 [label="left_eye_ratio <= 0.3\nentropy = 0.503\nsamples = 9\nvalue = [1, 8, 0, 0, 0]\nclass = Blinking"] ;
283 -> 285 ;
286 [label="entropy = 0.0\nsamples = 6\nvalue = [0, 6, 0, 0, 0]\nclass = Blinking"] ;
285 -> 286 ;
287 [label="left_eye_ratio <= 0.302\nentropy = 0.918\nsamples = 3\nvalue = [1, 2, 0, 0, 0]\nclass = Blinking"] ;
285 -> 287 ;
288 [label="entropy = 0.0\nsamples = 1\nvalue = [1, 0, 0, 0, 0]\nclass = Eye Close"] ;
287 -> 288 ;
289 [label="entropy = 0.0\nsamples = 2\nvalue = [0, 2, 0, 0, 0]\nclass = Blinking"] ;
287 -> 289 ;
290 [label="entropy = 0.0\nsamples = 1\nvalue = [0, 0, 0, 1, 0]\nclass = Frown"] ;
270 -> 290 ;
291 [label="entropy = 0.0\nsamples = 15\nvalue = [0, 15, 0, 0, 0]\nclass = Blinking"] ;
265 -> 291 ;
292 [label="Eyes_Vertical_Ratio <= 0.265\nentropy = 1.41\nsamples = 21\nvalue = [12, 4, 0, 5, 0]\nclass = Eye Close"] ;
264 -> 292 ;
293 [label="right_eye_ratio <= 0.311\nentropy = 1.252\nsamples = 6\nvalue = [1, 1, 0, 4, 0]\nclass = Frown"] ;
292 -> 293 ;
294 [label="left_eye_ratio <= 0.307\nentropy = 1.0\nsamples = 2\nvalue = [1, 1, 0, 0, 0]\nclass = Eye Close"] ;
293 -> 294 ;
295 [label="entropy = 0.0\nsamples = 1\nvalue = [1, 0, 0, 0, 0]\nclass = Eye Close"] ;
294 -> 295 ;
296 [label="entropy = 0.0\nsamples = 1\nvalue = [0, 1, 0, 0, 0]\nclass = Blinking"] ;
294 -> 296 ;
297 [label="entropy = 0.0\nsamples = 4\nvalue = [0, 0, 0, 4, 0]\nclass = Frown"] ;
293 -> 297 ;
298 [label="right_eye_ratio <= 0.317\nentropy = 1.053\nsamples = 15\nvalue = [11, 3, 0, 1, 0]\nclass = Eye Close"] ;
292 -> 298 ;
299 [label="entropy = 0.0\nsamples = 7\nvalue = [7, 0, 0, 0, 0]\nclass = Eye Close"] ;
298 -> 299 ;
300 [label="Left_Ratio_Difference <= 0.051\nentropy = 1.406\nsamples = 8\nvalue = [4, 3, 0, 1, 0]\nclass = Eye Close"] ;
298 -> 300 ;
301 [label="entropy = 0.0\nsamples = 3\nvalue = [3, 0, 0, 0, 0]\nclass = Eye Close"] ;
300 -> 301 ;
302 [label="right_eye_ratio <= 0.333\nentropy = 1.371\nsamples = 5\nvalue = [1, 3, 0, 1, 0]\nclass = Blinking"] ;
300 -> 302 ;
303 [label="entropy = 0.0\nsamples = 3\nvalue = [0, 3, 0, 0, 0]\nclass = Blinking"] ;
302 -> 303 ;
304 [label="Eyes_Vertical_Ratio <= 0.279\nentropy = 1.0\nsamples = 2\nvalue = [1, 0, 0, 1, 0]\nclass = Eye Close"] ;
302 -> 304 ;
305 [label="entropy = 0.0\nsamples = 1\nvalue = [0, 0, 0, 1, 0]\nclass = Frown"] ;
304 -> 305 ;
306 [label="entropy = 0.0\nsamples = 1\nvalue = [1, 0, 0, 0, 0]\nclass = Eye Close"] ;
304 -> 306 ;
307 [label="Left_Ratio_Difference <= 0.206\nentropy = 0.634\nsamples = 208\nvalue = [20, 183, 1, 4, 0]\nclass = Blinking"] ;
193 -> 307 ;
308 [label="right_eye_ratio <= 0.291\nentropy = 1.206\nsamples = 64\nvalue = [15, 44, 1, 4, 0]\nclass = Blinking"] ;
307 -> 308 ;
309 [label="Eyes_Vertical_Ratio <= 0.219\nentropy = 1.263\nsamples = 32\nvalue = [13, 17, 0, 2, 0]\nclass = Blinking"] ;
308 -> 309 ;
310 [label="right_eye_ratio <= 0.263\nentropy = 1.224\nsamples = 9\nvalue = [1, 6, 0, 2, 0]\nclass = Blinking"] ;
309 -> 310 ;
311 [label="entropy = 0.0\nsamples = 6\nvalue = [0, 6, 0, 0, 0]\nclass = Blinking"] ;
310 -> 311 ;
312 [label="left_eye_ratio <= 0.246\nentropy = 0.918\nsamples = 3\nvalue = [1, 0, 0, 2, 0]\nclass = Frown"] ;
310 -> 312 ;
313 [label="entropy = 0.0\nsamples = 1\nvalue = [1, 0, 0, 0, 0]\nclass = Eye Close"] ;
312 -> 313 ;
314 [label="entropy = 0.0\nsamples = 2\nvalue = [0, 0, 0, 2, 0]\nclass = Frown"] ;
312 -> 314 ;
315 [label="Left_Ratio_Difference <= 0.191\nentropy = 0.999\nsamples = 23\nvalue = [12, 11, 0, 0, 0]\nclass = Eye Close"] ;
309 -> 315 ;
316 [label="left_eye_ratio <= 0.271\nentropy = 0.971\nsamples = 20\nvalue = [12, 8, 0, 0, 0]\nclass = Eye Close"] ;
315 -> 316 ;
317 [label="Eyes_Vertical_Ratio <= 0.232\nentropy = 0.684\nsamples = 11\nvalue = [9, 2, 0, 0, 0]\nclass = Eye Close"] ;
316 -> 317 ;
318 [label="left_eye_ratio <= 0.251\nentropy = 1.0\nsamples = 4\nvalue = [2, 2, 0, 0, 0]\nclass = Eye Close"] ;
317 -> 318 ;
319 [label="entropy = 0.0\nsamples = 1\nvalue = [1, 0, 0, 0, 0]\nclass = Eye Close"] ;
318 -> 319 ;
320 [label="Eyes_Vertical_Ratio <= 0.222\nentropy = 0.918\nsamples = 3\nvalue = [1, 2, 0, 0, 0]\nclass = Blinking"] ;
318 -> 320 ;
321 [label="entropy = 0.0\nsamples = 1\nvalue = [1, 0, 0, 0, 0]\nclass = Eye Close"] ;
320 -> 321 ;
322 [label="entropy = 0.0\nsamples = 2\nvalue = [0, 2, 0, 0, 0]\nclass = Blinking"] ;
320 -> 322 ;
323 [label="entropy = 0.0\nsamples = 7\nvalue = [7, 0, 0, 0, 0]\nclass = Eye Close"] ;
317 -> 323 ;
324 [label="left_eye_ratio <= 0.307\nentropy = 0.918\nsamples = 9\nvalue = [3, 6, 0, 0, 0]\nclass = Blinking"] ;
316 -> 324 ;
325 [label="entropy = 0.0\nsamples = 6\nvalue = [0, 6, 0, 0, 0]\nclass = Blinking"] ;
324 -> 325 ;
326 [label="entropy = 0.0\nsamples = 3\nvalue = [3, 0, 0, 0, 0]\nclass = Eye Close"] ;
324 -> 326 ;
327 [label="entropy = 0.0\nsamples = 3\nvalue = [0, 3, 0, 0, 0]\nclass = Blinking"] ;
315 -> 327 ;
328 [label="Left_Ratio_Difference <= 0.091\nentropy = 0.863\nsamples = 32\nvalue = [2, 27, 1, 2, 0]\nclass = Blinking"] ;
308 -> 328 ;
329 [label="right_eye_ratio <= 0.307\nentropy = 1.041\nsamples = 12\nvalue = [0, 9, 1, 2, 0]\nclass = Blinking"] ;
328 -> 329 ;
330 [label="right_eye_ratio <= 0.293\nentropy = 0.503\nsamples = 9\nvalue = [0, 8, 1, 0, 0]\nclass = Blinking"] ;
329 -> 330 ;
331 [label="entropy = 0.0\nsamples = 1\nvalue = [0, 0, 1, 0, 0]\nclass = Eye Open"] ;
330 -> 331 ;
332 [label="entropy = 0.0\nsamples = 8\nvalue = [0, 8, 0, 0, 0]\nclass = Blinking"] ;
330 -> 332 ;
333 [label="Eyes_Vertical_Ratio <= 0.273\nentropy = 0.918\nsamples = 3\nvalue = [0, 1, 0, 2, 0]\nclass = Frown"] ;
329 -> 333 ;
334 [label="entropy = 0.0\nsamples = 2\nvalue = [0, 0, 0, 2, 0]\nclass = Frown"] ;
333 -> 334 ;
335 [label="entropy = 0.0\nsamples = 1\nvalue = [0, 1, 0, 0, 0]\nclass = Blinking"] ;
333 -> 335 ;
336 [label="Left_Ratio_Difference <= 0.201\nentropy = 0.469\nsamples = 20\nvalue = [2, 18, 0, 0, 0]\nclass = Blinking"] ;
328 -> 336 ;
337 [label="left_eye_ratio <= 0.261\nentropy = 0.297\nsamples = 19\nvalue = [1, 18, 0, 0, 0]\nclass = Blinking"] ;
336 -> 337 ;
338 [label="Eyes_Vertical_Ratio <= 0.248\nentropy = 0.811\nsamples = 4\nvalue = [1, 3, 0, 0, 0]\nclass = Blinking"] ;
337 -> 338 ;
339 [label="entropy = 0.0\nsamples = 3\nvalue = [0, 3, 0, 0, 0]\nclass = Blinking"] ;
338 -> 339 ;
340 [label="entropy = 0.0\nsamples = 1\nvalue = [1, 0, 0, 0, 0]\nclass = Eye Close"] ;
338 -> 340 ;
341 [label="entropy = 0.0\nsamples = 15\nvalue = [0, 15, 0, 0, 0]\nclass = Blinking"] ;
337 -> 341 ;
342 [label="entropy = 0.0\nsamples = 1\nvalue = [1, 0, 0, 0, 0]\nclass = Eye Close"] ;
336 -> 342 ;
343 [label="right_eye_ratio <= 0.246\nentropy = 0.218\nsamples = 144\nvalue = [5, 139, 0, 0, 0]\nclass = Blinking"] ;
307 -> 343 ;
344 [label="right_eye_ratio <= 0.241\nentropy = 0.954\nsamples = 8\nvalue = [3, 5, 0, 0, 0]\nclass = Blinking"] ;
343 -> 344 ;
345 [label="Eyes_Vertical_Ratio <= 0.219\nentropy = 0.65\nsamples = 6\nvalue = [1, 5, 0, 0, 0]\nclass = Blinking"] ;
344 -> 345 ;
346 [label="entropy = 0.0\nsamples = 5\nvalue = [0, 5, 0, 0, 0]\nclass = Blinking"] ;
345 -> 346 ;
347 [label="entropy = 0.0\nsamples = 1\nvalue = [1, 0, 0, 0, 0]\nclass = Eye Close"] ;
345 -> 347 ;
348 [label="entropy = 0.0\nsamples = 2\nvalue = [2, 0, 0, 0, 0]\nclass = Eye Close"] ;
344 -> 348 ;
349 [label="left_eye_ratio <= 0.319\nentropy = 0.111\nsamples = 136\nvalue = [2, 134, 0, 0, 0]\nclass = Blinking"] ;
343 -> 349 ;
350 [label="right_eye_ratio <= 0.327\nentropy = 0.063\nsamples = 134\nvalue = [1, 133, 0, 0, 0]\nclass = Blinking"] ;
349 -> 350 ;
351 [label="entropy = 0.0\nsamples = 130\nvalue = [0, 130, 0, 0, 0]\nclass = Blinking"] ;
350 -> 351 ;
352 [label="left_eye_ratio <= 0.281\nentropy = 0.811\nsamples = 4\nvalue = [1, 3, 0, 0, 0]\nclass = Blinking"] ;
350 -> 352 ;
353 [label="entropy = 0.0\nsamples = 1\nvalue = [1, 0, 0, 0, 0]\nclass = Eye Close"] ;
352 -> 353 ;
354 [label="entropy = 0.0\nsamples = 3\nvalue = [0, 3, 0, 0, 0]\nclass = Blinking"] ;
352 -> 354 ;
355 [label="right_eye_ratio <= 0.301\nentropy = 1.0\nsamples = 2\nvalue = [1, 1, 0, 0, 0]\nclass = Eye Close"] ;
349 -> 355 ;
356 [label="entropy = 0.0\nsamples = 1\nvalue = [1, 0, 0, 0, 0]\nclass = Eye Close"] ;
355 -> 356 ;
357 [label="entropy = 0.0\nsamples = 1\nvalue = [0, 1, 0, 0, 0]\nclass = Blinking"] ;
355 -> 357 ;
358 [label="Left_Ratio_Difference <= 0.261\nentropy = 0.046\nsamples = 390\nvalue = [0, 2, 0, 388, 0]\nclass = Frown"] ;
192 -> 358 ;
359 [label="entropy = 0.0\nsamples = 383\nvalue = [0, 0, 0, 383, 0]\nclass = Frown"] ;
358 -> 359 ;
360 [label="left_eye_ratio <= 0.33\nentropy = 0.863\nsamples = 7\nvalue = [0, 2, 0, 5, 0]\nclass = Frown"] ;
358 -> 360 ;
361 [label="entropy = 0.0\nsamples = 2\nvalue = [0, 2, 0, 0, 0]\nclass = Blinking"] ;
360 -> 361 ;
362 [label="entropy = 0.0\nsamples = 5\nvalue = [0, 0, 0, 5, 0]\nclass = Frown"] ;
360 -> 362 ;
}